<?xml version="1.0"?>
<opencv_storage>
<my_svm type_id="opencv-ml-svm">
  <svm_type>C_SVC</svm_type>
  <kernel><type>LINEAR</type></kernel>
  <C>1.0000000000000001e-001</C>
  <term_criteria><epsilon>2.2204460492503131e-016</epsilon>
    <iterations>10000000</iterations></term_criteria>
  <var_all>4</var_all>
  <var_count>4</var_count>
  <class_count>6</class_count>
  <class_labels type_id="opencv-matrix">
    <rows>1</rows>
    <cols>6</cols>
    <dt>i</dt>
    <data>
      1 2 3 4 5 6</data></class_labels>
  <sv_total>512</sv_total>
  <support_vectors>
    <_>
      -4.35059488e-001 7.53652304e-002 2.20166063e+000 4.07458038e+001</_>
    <_>
      2.13631108e-001 2.02047616e-001 2.87524343e+000 7.37713547e+001</_>
    <_>
      2.88986474e-001 3.18830788e-001 2.59044862e+000 8.99304047e+001</_>
    <_>
      1.44064561e-001 8.48827437e-002 3.90641928e+000 1.24249695e+002</_>
    <_>
      -6.69569373e-001 -7.16656744e-001 2.08103371e+000 -1.</_>
    <_>
      -6.04157269e-001 -6.99145973e-001 2.26440454e+000 6.41219559e+001</_>
    <_>
      7.19610333e-001 -6.49532735e-001 1.56306088e+000 5.67188049e+002</_>
    <_>
      -4.22129631e-001 -7.82019615e-001 2.24712467e+000 2.56448090e+002</_>
    <_>
      9.59503651e-003 8.72122943e-001 2.16564250e+000 3.56228424e+002</_>
    <_>
      6.88623667e-001 -7.14226425e-001 2.11628866e+000 4.04372498e+002</_>
    <_>
      -5.33351600e-001 -7.43876517e-001 1.84171748e+000 2.87045746e+002</_>
    <_>
      8.89855742e-001 -1.98461950e-001 2.14374614e+000 2.79389069e+002</_>
    <_>
      3.81817400e-001 -6.37472510e-001 2.16107035e+000 4.40173889e+002</_>
    <_>
      -6.19182765e-001 -2.86954910e-001 1.74767041e+000 3.48607666e+002</_>
    <_>
      1.80807963e-001 7.00930774e-001 2.77024269e+000 2.90336975e+002</_>
    <_>
      4.93227839e-001 -7.04328418e-001 2.76164174e+000 3.79208679e+002</_>
    <_>
      6.22006059e-001 -7.05438972e-001 2.44448066e+000 3.33829559e+002</_>
    <_>
      3.62396419e-001 -6.38477981e-001 3.00247645e+000 3.36500763e+002</_>
    <_>
      2.49142498e-001 -4.00409579e-001 2.53504109e+000 3.07915833e+002</_>
    <_>
      2.51884848e-001 -7.58786500e-001 2.79081202e+000 2.91866302e+002</_>
    <_>
      -4.11487743e-002 -7.60897279e-001 2.55430102e+000 4.05198029e+002</_>
    <_>
      -1.76523626e-001 3.16659600e-001 2.56848860e+000 3.33115112e+002</_>
    <_>
      -4.11255568e-001 -8.27933252e-001 2.42778707e+000 3.59054535e+002</_>
    <_>
      2.99070895e-001 -8.01120996e-001 2.51185584e+000 3.06257904e+002</_>
    <_>
      7.40486264e-001 -3.75658929e-001 1.59573936e+000 3.39747162e+002</_>
    <_>
      4.80945081e-001 -7.68508255e-001 2.07405376e+000 2.87564423e+002</_>
    <_>
      -1.67275622e-001 7.91984499e-001 2.56434274e+000 3.10389374e+002</_>
    <_>
      5.24968982e-001 -7.48626471e-001 2.23979568e+000 2.89225342e+002</_>
    <_>
      -6.55052364e-001 -3.11744541e-001 2.45782781e+000 3.26802643e+002</_>
    <_>
      2.24695623e-001 5.81160605e-001 2.55890870e+000 2.73502869e+002</_>
    <_>
      -4.15070713e-001 -8.37925792e-001 2.24959874e+000 3.58506836e+002</_>
    <_>
      -1.50968134e-001 -5.77990055e-001 2.52278996e+000 3.20863525e+002</_>
    <_>
      -5.09320572e-002 -7.93882787e-001 2.53921390e+000 -1.</_>
    <_>
      2.52321601e-001 -7.49769449e-001 2.62064362e+000 5.20850281e+002</_>
    <_>
      -3.91095549e-001 -6.84865475e-001 2.16490388e+000 4.13177429e+002</_>
    <_>
      4.90663141e-001 -6.28243268e-001 2.30604601e+000 2.71390778e+002</_>
    <_>
      8.85293186e-001 1.15405507e-001 4.49657965e+000 4.15983185e+002</_>
    <_>
      -4.84023899e-001 5.29269755e-001 2.77183962e+000 2.23588531e+002</_>
    <_>
      5.98380148e-001 4.28716898e-001 2.47985220e+000 4.07054962e+002</_>
    <_>
      2.29115024e-001 -8.76698792e-001 2.42576528e+000 4.35793976e+002</_>
    <_>
      4.16378304e-002 -8.13053191e-001 2.97030520e+000 4.38033020e+002</_>
    <_>
      -3.27538669e-001 -7.46299028e-001 2.75405169e+000 4.05112915e+002</_>
    <_>
      4.09022272e-001 -6.47359371e-001 2.54499197e+000 2.52543198e+002</_>
    <_>
      6.01796091e-001 -5.51673293e-001 5.56287861e+000 3.42738403e+002</_>
    <_>
      9.53425705e-001 1.01940759e-001 3.88159108e+000 3.90667114e+002</_>
    <_>
      -7.06129074e-001 2.40156084e-001 2.28025293e+000 2.40026855e+002</_>
    <_>
      2.51757372e-002 6.47796452e-001 2.26611376e+000 3.65223389e+002</_>
    <_>
      -6.56103790e-002 7.68549800e-001 5.15655041e+000 5.11336578e+002</_>
    <_>
      -1.20800875e-001 -7.84288108e-001 4.68175840e+000 3.56488617e+002</_>
    <_>
      1.69212282e-001 -7.55995929e-001 2.77696109e+000 4.15684052e+002</_>
    <_>
      -5.64108253e-001 -5.06783903e-001 2.62460732e+000 3.89042328e+002</_>
    <_>
      -5.62953413e-001 1.71725288e-001 5.94916773e+000 3.67495483e+002</_>
    <_>
      6.32542729e-001 4.07045007e-001 2.87272596e+000 4.01278809e+002</_>
    <_>
      1.20655194e-001 -6.95188642e-001 2.89559889e+000 3.94733673e+002</_>
    <_>
      3.87333781e-001 5.99718630e-001 4.52910328e+000 3.85490601e+002</_>
    <_>
      -1.58636823e-001 -9.47412133e-001 2.29927635e+000 2.81860352e+002</_>
    <_>
      7.51399249e-002 -7.94071674e-001 1.96649516e+000 2.51639084e+002</_>
    <_>
      1.95406124e-001 -9.37205553e-001 2.15212870e+000 3.54220581e+002</_>
    <_>
      7.14013815e-001 3.75262141e-001 2.45263529e+000 3.64050232e+002</_>
    <_>
      7.08028734e-001 5.25855422e-001 3.61687160e+000 4.20513611e+002</_>
    <_>
      2.16191635e-001 -6.68556929e-001 2.73339796e+000 3.95067047e+002</_>
    <_>
      -2.81917471e-002 -7.46968031e-001 4.99533367e+000 3.74899567e+002</_>
    <_>
      -4.44957882e-001 3.14998657e-001 4.86006117e+000 3.03201294e+002</_>
    <_>
      6.66373014e-001 4.94113863e-001 2.62039113e+000 3.45255829e+002</_>
    <_>
      4.01484221e-001 7.90155530e-001 5.27311087e+000 3.54199127e+002</_>
    <_>
      5.87155640e-001 5.29156864e-001 2.79417944e+000 3.21016449e+002</_>
    <_>
      3.63984764e-001 7.66355753e-001 5.22490978e+000 4.23424896e+002</_>
    <_>
      3.50615710e-001 6.60962403e-001 3.44311595e+000 4.02201080e+002</_>
    <_>
      -2.57103205e-001 6.75327003e-001 4.06429482e+000 3.44418091e+002</_>
    <_>
      -1.60895497e-001 -8.10880840e-001 4.72199726e+000 4.06352173e+002</_>
    <_>
      1.45352826e-001 -6.38937175e-001 2.89979053e+000 4.04851135e+002</_>
    <_>
      -7.39095509e-002 -7.70345271e-001 4.97167873e+000 3.80540527e+002</_>
    <_>
      1.26934811e-001 8.29954803e-001 4.38443089e+000 3.87483673e+002</_>
    <_>
      4.34596241e-002 -7.06568182e-001 2.80188704e+000 3.96509338e+002</_>
    <_>
      -2.35333964e-001 -6.42951727e-001 2.96963978e+000 3.84342499e+002</_>
    <_>
      -4.10237044e-001 -5.94236076e-001 4.30714083e+000 4.00895935e+002</_>
    <_>
      -2.42250368e-001 -6.66326165e-001 4.32780504e+000 4.52211853e+002</_>
    <_>
      4.76749837e-001 -6.48739457e-001 5.81510496e+000 3.53859619e+002</_>
    <_>
      4.23980296e-001 7.17160404e-001 4.68735409e+000 4.21878876e+002</_>
    <_>
      2.36163706e-001 3.98904413e-001 3.23257256e+000 3.83505188e+002</_>
    <_>
      6.06134236e-001 4.63144422e-001 4.53908110e+000 4.00628937e+002</_>
    <_>
      7.12164581e-001 3.49782825e-001 2.40218854e+000 3.31950897e+002</_>
    <_>
      -2.30174705e-001 6.24667764e-001 5.33189058e+000 3.72563416e+002</_>
    <_>
      2.03328341e-001 -8.37853372e-001 2.55084944e+000 3.83746338e+002</_>
    <_>
      -1.46901738e-002 -7.66727328e-001 3.02009320e+000 3.01673798e+002</_>
    <_>
      7.82212708e-003 -8.04683387e-001 4.83130264e+000 3.80518921e+002</_>
    <_>
      -1.18469089e-001 -9.44978654e-001 1.43357980e+000 2.62899536e+002</_>
    <_>
      -5.86714558e-002 -4.73648250e-001 3.82746315e+000 4.24077209e+002</_>
    <_>
      -5.14547348e-001 4.42496568e-001 2.64794803e+000 2.58928070e+002</_>
    <_>
      6.27154529e-001 3.57015163e-001 2.57118058e+000 3.49121094e+002</_>
    <_>
      4.87135500e-001 4.65302318e-001 4.50259018e+000 4.24608704e+002</_>
    <_>
      -2.32831374e-001 5.39064646e-001 4.99712420e+000 3.07549377e+002</_>
    <_>
      1.82327509e-001 5.55050552e-001 4.30269337e+000 4.56267426e+002</_>
    <_>
      -1.36963362e-002 -7.76147723e-001 2.37348795e+000 3.92686371e+002</_>
    <_>
      -1.73011631e-001 -7.28134573e-001 2.45153880e+000 3.82633636e+002</_>
    <_>
      -3.41884106e-001 -8.76753569e-001 1.34070909e+000 2.68310425e+002</_>
    <_>
      -1.82507500e-001 -7.65620172e-001 3.21296763e+000 4.10986420e+002</_>
    <_>
      6.17393017e-001 -6.97999075e-002 3.20851445e+000 4.16318848e+002</_>
    <_>
      1.98972017e-001 -8.41379702e-001 2.06546402e+000 4.01877655e+002</_>
    <_>
      2.32423469e-002 -7.42867172e-001 2.07594442e+000 3.92673981e+002</_>
    <_>
      1.91912532e-001 -6.67095780e-001 2.43149114e+000 2.96081482e+002</_>
    <_>
      -3.27338457e-001 -6.67628825e-001 1.95218241e+000 3.77541595e+002</_>
    <_>
      -3.94150376e-001 -7.76645005e-001 3.94648290e+000 4.48583801e+002</_>
    <_>
      -7.93558538e-001 5.44359088e-001 4.52864027e+000 2.99656067e+002</_>
    <_>
      -4.75929916e-001 6.76240146e-001 5.07216501e+000 3.62319885e+002</_>
    <_>
      4.35436964e-001 5.46214938e-001 5.03603125e+000 4.38683990e+002</_>
    <_>
      -3.54205847e-001 5.04315019e-001 4.28663731e+000 3.76031311e+002</_>
    <_>
      -1.07839607e-001 -8.98131430e-001 2.31582403e+000 3.03066315e+002</_>
    <_>
      1.43403277e-001 -8.22041869e-001 2.33890939e+000 3.93975281e+002</_>
    <_>
      -3.31203163e-001 -6.89368665e-001 2.22683573e+000 3.73822327e+002</_>
    <_>
      4.24041659e-001 -6.72559381e-001 2.32507610e+000 2.85433319e+002</_>
    <_>
      -5.76029301e-001 -6.91986084e-001 3.01136208e+000 4.23825836e+002</_>
    <_>
      -6.94213152e-001 3.36507916e-001 3.74158812e+000 3.37736450e+002</_>
    <_>
      -7.42718756e-001 4.33082968e-001 2.19961691e+000 2.70921356e+002</_>
    <_>
      8.18592668e-001 3.01324129e-001 1.87548065e+000 3.43446777e+002</_>
    <_>
      -5.03636956e-001 7.14924634e-001 4.48604727e+000 3.19742065e+002</_>
    <_>
      4.26584035e-001 6.47395253e-001 2.26272249e+000 3.66418579e+002</_>
    <_>
      5.32743514e-001 6.51783526e-001 4.20155573e+000 4.19969971e+002</_>
    <_>
      4.01978940e-001 5.56390285e-001 2.94453883e+000 4.21735535e+002</_>
    <_>
      -9.15246129e-001 -9.77278575e-002 3.73572159e+000 -1.</_>
    <_>
      -9.19625401e-001 -2.43283525e-001 3.77133060e+000 9.74769745e+001</_>
    <_>
      -9.27115321e-001 -6.42017424e-002 3.57169580e+000 1.70983414e+002</_>
    <_>
      -9.58000541e-001 -4.47367020e-002 4.02813625e+000 2.97160431e+002</_>
    <_>
      -8.30837309e-001 1.00051805e-001 4.54337692e+000 1.36160950e+002</_>
    <_>
      -9.37188268e-001 -7.52396509e-002 3.46501780e+000 3.97561584e+002</_>
    <_>
      -9.81049716e-001 -1.92579292e-002 3.87235379e+000 1.81589417e+002</_>
    <_>
      -9.94483650e-001 -9.98151153e-002 3.59696698e+000 2.29319336e+002</_>
    <_>
      -9.75044608e-001 -2.29166318e-002 4.07156467e+000 5.60628784e+002</_>
    <_>
      -9.60131943e-001 -4.97983955e-003 4.00586796e+000 4.00514282e+002</_>
    <_>
      -9.71466482e-001 -2.73786001e-002 4.07306623e+000 3.90997253e+002</_>
    <_>
      -9.01796639e-001 -9.51692984e-002 4.81707191e+000 3.30171021e+002</_>
    <_>
      -9.66002524e-001 -3.02637722e-002 4.18301392e+000 2.54936279e+002</_>
    <_>
      -5.55274844e-001 -5.15768170e-001 7.91767359e+000 3.40231750e+002</_>
    <_>
      -9.81957614e-001 -1.43454717e-002 3.99608660e+000 2.97911682e+002</_>
    <_>
      -9.71456707e-001 -1.33534186e-002 4.11970425e+000 2.76363495e+002</_>
    <_>
      -9.63839889e-001 6.30792044e-003 3.97318912e+000 3.45850494e+002</_>
    <_>
      -9.74501312e-001 -2.36511659e-002 4.04739189e+000 5.30902954e+002</_>
    <_>
      -9.73647177e-001 -3.71120572e-002 4.09447956e+000 4.79225647e+002</_>
    <_>
      -9.49411571e-001 -1.80936884e-002 3.93202662e+000 4.80554688e+002</_>
    <_>
      -8.92285526e-001 -1.88107207e-001 4.45611572e+000 2.63630737e+002</_>
    <_>
      -9.73338485e-001 -2.13709455e-002 4.05219126e+000 3.75590027e+002</_>
    <_>
      -9.48328793e-001 1.15738623e-002 3.86645627e+000 3.78780182e+002</_>
    <_>
      -9.66268539e-001 -1.29342377e-002 4.23938560e+000 6.15394470e+002</_>
    <_>
      -9.60786164e-001 -3.61923128e-002 4.17546177e+000 5.77047241e+002</_>
    <_>
      -9.19538736e-001 -1.99535653e-001 3.77982903e+000 6.13984863e+002</_>
    <_>
      -9.29293334e-001 -1.51694492e-001 4.29898548e+000 5.23262390e+002</_>
    <_>
      -9.64351833e-001 -3.62615101e-002 4.16570520e+000 6.38806519e+002</_>
    <_>
      -9.27152336e-001 1.02518514e-001 4.49386168e+000 4.45526276e+002</_>
    <_>
      -8.11113536e-001 2.13206843e-001 4.29361534e+000 6.40473022e+002</_>
    <_>
      -7.82117307e-001 -8.40947479e-002 5.12467861e+000 4.31308472e+002</_>
    <_>
      -9.67629910e-001 -5.55198006e-002 4.24570751e+000 5.20352661e+002</_>
    <_>
      -5.88423789e-001 3.82369608e-001 6.51166677e+000 5.50919250e+002</_>
    <_>
      -9.13563490e-001 -2.11456165e-001 5.07343388e+000 6.56503845e+002</_>
    <_>
      -9.86980259e-001 -5.34467911e-003 4.07893801e+000 4.00889404e+002</_>
    <_>
      -9.66631174e-001 -1.78365633e-001 3.44793582e+000 6.23477600e+002</_>
    <_>
      -9.94682610e-001 -7.58662000e-002 3.80708456e+000 6.26717773e+002</_>
    <_>
      -9.78450000e-001 -3.70831378e-002 4.08439493e+000 6.62572571e+002</_>
    <_>
      -9.90734518e-001 4.01688665e-002 3.97585869e+000 4.19690186e+002</_>
    <_>
      -9.64496672e-001 -3.28406990e-002 4.20312834e+000 8.32087769e+002</_>
    <_>
      -7.19258249e-001 1.19802594e-001 4.42394686e+000 7.43835938e+002</_>
    <_>
      -9.66575980e-001 -2.27431636e-002 4.29199839e+000 9.03575623e+002</_>
    <_>
      -9.29009020e-001 4.32638125e-003 4.44779539e+000 6.91299744e+002</_>
    <_>
      -9.83569384e-001 -1.13768250e-001 3.44080472e+000 7.44785278e+002</_>
    <_>
      -9.69763160e-001 -2.37497259e-002 3.94359136e+000 6.79862000e+002</_>
    <_>
      -9.75209355e-001 -1.74518079e-002 4.15125036e+000 6.61825012e+002</_>
    <_>
      -9.70832884e-001 -9.27301217e-003 4.25556421e+000 6.38160400e+002</_>
    <_>
      -2.48381183e-001 -6.54916465e-001 1.13418369e+001 9.03439331e+002</_>
    <_>
      -1.53481171e-001 3.71119171e-001 6.87685633e+000 7.46785461e+002</_>
    <_>
      -9.79725003e-001 -2.04984676e-002 4.09189415e+000 6.65392090e+002</_>
    <_>
      4.29989755e-001 -4.47125733e-001 6.25640774e+000 7.37630310e+002</_>
    <_>
      7.28965878e-001 -1.40045494e-001 3.98889089e+000 7.63503235e+002</_>
    <_>
      6.44922197e-001 2.71823019e-001 6.23898888e+000 7.99573975e+002</_>
    <_>
      9.28423107e-001 -7.90652484e-002 4.30344152e+000 6.90971497e+002</_>
    <_>
      9.91366208e-001 5.02599292e-002 3.81244850e+000 6.45660583e+002</_>
    <_>
      8.92245412e-001 -1.51058480e-001 3.83289766e+000 6.81619690e+002</_>
    <_>
      9.81747746e-001 -9.39427468e-004 4.07385921e+000 6.35166504e+002</_>
    <_>
      6.48985565e-001 -8.42552457e-004 5.83510494e+000 5.76773804e+002</_>
    <_>
      9.45161819e-001 1.44206151e-001 4.30345631e+000 7.91366333e+002</_>
    <_>
      9.37668264e-001 9.37412865e-003 3.91336823e+000 6.03360779e+002</_>
    <_>
      9.66793060e-001 3.64903733e-002 3.87542725e+000 5.21114136e+002</_>
    <_>
      9.80327487e-001 -1.90718449e-003 4.08105135e+000 5.75334778e+002</_>
    <_>
      9.14580047e-001 8.66328776e-002 4.10892200e+000 5.47383301e+002</_>
    <_>
      9.81150031e-001 -4.15926380e-003 4.08685064e+000 6.26246887e+002</_>
    <_>
      5.16988635e-001 -2.99649298e-001 6.82600546e+000 5.12109192e+002</_>
    <_>
      9.60845947e-001 -1.20318728e-002 4.10927677e+000 5.34260864e+002</_>
    <_>
      9.70067799e-001 5.11848181e-002 3.97971582e+000 4.86317383e+002</_>
    <_>
      9.83660460e-001 4.78680730e-002 3.86382937e+000 5.51166687e+002</_>
    <_>
      9.87608731e-001 1.01543322e-001 3.84213185e+000 4.86631653e+002</_>
    <_>
      7.96756208e-001 4.40353394e-001 5.25619221e+000 5.14775024e+002</_>
    <_>
      5.23189306e-001 3.21027219e-001 7.28921127e+000 7.00641418e+002</_>
    <_>
      9.67863441e-001 -4.41685654e-002 4.25672531e+000 5.01951477e+002</_>
    <_>
      9.63120222e-001 -8.08172449e-002 4.41679764e+000 5.43325256e+002</_>
    <_>
      6.46130681e-001 -1.16960676e-002 5.68685389e+000 5.49447021e+002</_>
    <_>
      9.74059165e-001 -3.30569893e-002 4.21339464e+000 6.36591064e+002</_>
    <_>
      9.76160765e-001 6.55295104e-002 4.24584293e+000 4.71253632e+002</_>
    <_>
      9.08925414e-001 4.92701493e-002 4.02464437e+000 5.09369293e+002</_>
    <_>
      9.69996810e-001 -4.07100171e-002 4.17992640e+000 5.61123352e+002</_>
    <_>
      9.42508519e-001 -2.83704232e-002 4.54322720e+000 5.90044739e+002</_>
    <_>
      6.99538052e-001 -3.10038477e-002 5.55884981e+000 4.70722900e+002</_>
    <_>
      5.05500257e-001 -3.91919911e-001 7.72942829e+000 5.40050110e+002</_>
    <_>
      9.67986107e-001 8.09168443e-003 4.06739330e+000 4.87096405e+002</_>
    <_>
      7.67409980e-001 -4.21597600e-001 9.66778183e+000 5.49276978e+002</_>
    <_>
      9.85799730e-001 6.64315298e-002 3.88167953e+000 4.78029419e+002</_>
    <_>
      4.47294593e-001 -2.22606912e-001 5.58164406e+000 5.86708862e+002</_>
    <_>
      9.92987156e-001 7.44581036e-003 4.02454138e+000 5.90266663e+002</_>
    <_>
      5.63022137e-001 2.10441604e-001 4.52137518e+000 5.68689453e+002</_>
    <_>
      9.38859761e-001 -2.40158755e-002 4.14080095e+000 5.88979004e+002</_>
    <_>
      9.44734812e-001 1.75828025e-001 4.45621443e+000 5.35575745e+002</_>
    <_>
      7.10952699e-001 7.40948245e-002 5.23800182e+000 7.39179688e+002</_>
    <_>
      7.56881654e-001 2.92625397e-001 5.39385366e+000 6.41424438e+002</_>
    <_>
      9.75579858e-001 -9.98599827e-003 4.53958988e+000 7.65039978e+002</_>
    <_>
      9.15919185e-001 7.05957562e-002 4.56296539e+000 6.68797180e+002</_>
    <_>
      9.02027905e-001 7.06649944e-003 4.39582300e+000 6.43992432e+002</_>
    <_>
      8.64028513e-001 -1.31349951e-001 4.91699123e+000 6.29543213e+002</_>
    <_>
      6.16855443e-001 3.45987082e-001 5.59738445e+000 7.73292358e+002</_>
    <_>
      9.81005907e-001 4.10654917e-002 4.12059021e+000 6.96681702e+002</_>
    <_>
      4.31167424e-001 4.59436297e-001 3.80184174e+000 7.21304871e+002</_>
    <_>
      6.80186749e-001 -1.23985521e-001 6.83660650e+000 6.99170593e+002</_>
    <_>
      3.31229538e-001 5.72319180e-002 4.14053059e+000 6.89744568e+002</_>
    <_>
      -9.63464797e-001 -2.33912878e-002 4.35635996e+000 6.41372986e+002</_>
    <_>
      -9.44929600e-001 -1.80381954e-001 4.03185749e+000 6.75421814e+002</_>
    <_>
      -7.15509236e-001 -2.08747447e-001 5.38078594e+000 6.70795166e+002</_>
    <_>
      -2.49027267e-001 -6.18908226e-001 9.80876160e+000 7.44912476e+002</_>
    <_>
      -9.70683455e-001 -3.35502215e-002 4.12421179e+000 6.83623169e+002</_>
    <_>
      -9.64782655e-001 -1.60918266e-001 4.68651009e+000 5.58703125e+002</_>
    <_>
      -3.99026692e-001 4.32033330e-001 4.62897778e+000 7.29147156e+002</_>
    <_>
      -9.78154123e-001 -1.03648312e-001 4.40148497e+000 6.70874146e+002</_>
    <_>
      -9.87177908e-001 -8.82882904e-003 4.61306906e+000 6.14037231e+002</_>
    <_>
      -9.77500558e-001 -1.06142335e-001 4.42558384e+000 6.31052612e+002</_>
    <_>
      -7.64066279e-001 -1.81176901e-001 5.76950502e+000 6.42296875e+002</_>
    <_>
      -9.76531088e-001 -8.10600221e-002 4.32320929e+000 5.96769836e+002</_>
    <_>
      -9.80574727e-001 -3.94890383e-002 4.26727104e+000 5.22755249e+002</_>
    <_>
      -4.27384079e-001 3.62772405e-001 3.14727640e+000 6.74230530e+002</_>
    <_>
      -9.92434084e-001 -1.70539524e-002 4.23760509e+000 6.24052856e+002</_>
    <_>
      -9.91147339e-001 -1.10122710e-001 4.18819332e+000 5.03243988e+002</_>
    <_>
      -9.60095406e-001 -8.31326023e-002 4.34732485e+000 4.84204224e+002</_>
    <_>
      -9.53183353e-001 -1.90078974e-001 4.68134594e+000 5.05709717e+002</_>
    <_>
      -9.80419159e-001 -1.05615668e-001 4.37046337e+000 7.29751404e+002</_>
    <_>
      -7.02711940e-001 6.07075170e-002 4.92321539e+000 5.15066162e+002</_>
    <_>
      -9.83952343e-001 -3.15753333e-002 4.19998884e+000 5.08276703e+002</_>
    <_>
      -9.80782151e-001 -8.93775523e-002 4.50474644e+000 5.66944824e+002</_>
    <_>
      -9.57909107e-001 6.75807754e-003 4.74331093e+000 6.53448608e+002</_>
    <_>
      -9.40591633e-001 -9.93132740e-002 4.54289722e+000 4.66278107e+002</_>
    <_>
      -9.82549369e-001 -8.94551575e-002 4.50491238e+000 6.31528015e+002</_>
    <_>
      -4.47897255e-001 3.19404960e-001 3.42301297e+000 5.52429871e+002</_>
    <_>
      -9.17601943e-001 -4.85934466e-002 4.77542019e+000 5.69501282e+002</_>
    <_>
      -9.58946288e-001 7.91473538e-002 4.17977571e+000 4.53106171e+002</_>
    <_>
      -9.52798247e-001 -5.85573912e-002 4.58490229e+000 4.96328430e+002</_>
    <_>
      -6.70685947e-001 4.04770449e-002 4.45377684e+000 5.37343445e+002</_>
    <_>
      -9.93027449e-001 -6.89582452e-002 4.58858442e+000 5.89087219e+002</_>
    <_>
      -3.73268247e-001 -6.39055908e-001 9.83688736e+000 5.33508179e+002</_>
    <_>
      -4.07802910e-001 -7.00545371e-001 1.10926266e+001 5.31929993e+002</_>
    <_>
      -9.95377839e-001 -6.74897134e-002 4.53126240e+000 5.20356079e+002</_>
    <_>
      -9.88057852e-001 -9.30593312e-002 4.43450880e+000 5.02619293e+002</_>
    <_>
      -9.84054446e-001 -3.30490135e-002 4.31985521e+000 4.98165588e+002</_>
    <_>
      -9.91177082e-001 -1.02885254e-001 4.37338543e+000 5.78813782e+002</_>
    <_>
      -8.96557629e-001 -3.26141063e-003 4.65028048e+000 7.05473816e+002</_>
    <_>
      -9.82966125e-001 3.74474041e-002 4.29842806e+000 6.19037598e+002</_>
    <_>
      -9.71372247e-001 -7.27760866e-002 4.07198095e+000 7.41619568e+002</_>
    <_>
      -9.23160434e-001 1.10607080e-001 4.73911667e+000 6.67907532e+002</_>
    <_>
      -9.72352207e-001 -8.51474553e-002 4.09552670e+000 8.34948975e+002</_>
    <_>
      -9.42442536e-001 1.16299517e-001 4.06320429e+000 6.18580078e+002</_>
    <_>
      -9.88429368e-001 -4.33917791e-002 3.89830446e+000 6.53265015e+002</_>
    <_>
      -9.80347931e-001 -7.07451776e-002 4.94228125e+000 6.96532898e+002</_>
    <_>
      -4.79876518e-001 -3.30000043e-001 6.56809139e+000 6.57909363e+002</_>
    <_>
      -9.55625296e-001 -5.68081215e-002 4.39336586e+000 5.74967834e+002</_>
    <_>
      -6.18559361e-001 3.19098920e-001 5.02644205e+000 6.62349182e+002</_>
    <_>
      -3.41012299e-001 -1.32327592e-002 3.75889850e+000 6.57823547e+002</_>
    <_>
      9.55896378e-001 -3.06847617e-002 4.13691187e+000 7.46643860e+002</_>
    <_>
      9.43502367e-001 1.10169515e-001 3.68913007e+000 7.48487244e+002</_>
    <_>
      8.78701866e-001 -1.68905824e-001 3.78284764e+000 6.54215393e+002</_>
    <_>
      9.97790575e-001 -2.38052988e-003 4.05037069e+000 6.87322327e+002</_>
    <_>
      9.21418071e-001 1.22300293e-002 4.51377726e+000 6.14008728e+002</_>
    <_>
      9.65925217e-001 2.42105927e-002 4.15081215e+000 7.15717407e+002</_>
    <_>
      9.79640841e-001 7.03324825e-002 4.30350256e+000 6.58479553e+002</_>
    <_>
      9.62564290e-001 4.16219421e-002 4.32750893e+000 5.82864990e+002</_>
    <_>
      8.78866732e-001 2.03124776e-001 4.84854031e+000 6.59913574e+002</_>
    <_>
      8.31902623e-001 2.76020378e-001 4.78945494e+000 5.69244202e+002</_>
    <_>
      9.81823742e-001 6.74152523e-002 4.12901306e+000 6.93600159e+002</_>
    <_>
      9.61939812e-001 4.64993790e-002 4.40033245e+000 5.52633545e+002</_>
    <_>
      7.86264181e-001 -1.23806961e-001 4.97262192e+000 6.30696289e+002</_>
    <_>
      9.21744764e-001 1.70122534e-002 4.42488861e+000 5.75030518e+002</_>
    <_>
      6.15258634e-001 1.57018393e-001 3.63610792e+000 5.49364502e+002</_>
    <_>
      9.82219040e-001 3.30448970e-002 4.27166605e+000 4.99864777e+002</_>
    <_>
      9.77592349e-001 2.37645712e-002 4.39145947e+000 6.36954651e+002</_>
    <_>
      9.74442005e-001 2.31800266e-002 4.38312817e+000 5.63558777e+002</_>
    <_>
      7.42395520e-001 -2.20070943e-001 3.05756211e+000 5.86968689e+002</_>
    <_>
      9.35625792e-001 -1.52707517e-001 3.65705800e+000 5.97927246e+002</_>
    <_>
      7.00753927e-001 -2.10741654e-001 5.75018263e+000 4.66923279e+002</_>
    <_>
      9.80615139e-001 4.72431891e-002 4.34439182e+000 4.65357361e+002</_>
    <_>
      9.55595016e-001 -8.93865619e-003 4.50295830e+000 4.61681030e+002</_>
    <_>
      9.71813142e-001 1.08794145e-001 4.47530842e+000 4.88763763e+002</_>
    <_>
      8.50057483e-001 1.85439304e-001 4.99881077e+000 5.55082642e+002</_>
    <_>
      9.65609431e-001 4.27176394e-002 4.32793808e+000 4.67658081e+002</_>
    <_>
      9.80854809e-001 1.78806074e-002 4.23109818e+000 5.10865051e+002</_>
    <_>
      9.85705078e-001 7.15287775e-002 4.32925129e+000 4.73509857e+002</_>
    <_>
      9.72469866e-001 2.78960429e-002 4.39416981e+000 5.51757813e+002</_>
    <_>
      9.80107367e-001 3.99346501e-002 4.35400867e+000 6.37503662e+002</_>
    <_>
      5.37073672e-001 3.13589513e-001 3.71288037e+000 6.05882324e+002</_>
    <_>
      9.77482259e-001 2.91138608e-003 4.53595257e+000 7.97885376e+002</_>
    <_>
      9.80063319e-001 6.80941418e-002 4.49610567e+000 5.77208374e+002</_>
    <_>
      9.72642303e-001 -3.83388251e-003 4.48524237e+000 7.12896606e+002</_>
    <_>
      9.68295932e-001 -1.07602328e-001 3.91092300e+000 5.93172607e+002</_>
    <_>
      8.97201896e-001 -9.10601318e-002 4.68043327e+000 5.57503845e+002</_>
    <_>
      8.70594740e-001 9.03888866e-002 4.31132364e+000 5.99932007e+002</_>
    <_>
      9.86439645e-001 5.74865788e-002 4.15602446e+000 6.07954834e+002</_>
    <_>
      -9.44881976e-001 -6.85008913e-002 5.66434526e+000 -1.</_>
    <_>
      -7.75464952e-001 -2.26529837e-001 6.42221069e+000 5.24540100e+002</_>
    <_>
      -9.83460009e-001 -6.02773465e-002 5.94026661e+000 2.67313477e+002</_>
    <_>
      -9.84451413e-001 -3.65436859e-002 6.51452017e+000 2.73813110e+002</_>
    <_>
      -9.83198822e-001 -7.65720084e-002 5.98907804e+000 4.52061432e+002</_>
    <_>
      -9.79495943e-001 -6.92346692e-002 6.06049109e+000 3.10358612e+002</_>
    <_>
      -9.76035118e-001 -1.59341786e-002 5.76378155e+000 2.52572906e+002</_>
    <_>
      -5.45239329e-001 2.37206459e-001 4.97061443e+000 5.34244446e+002</_>
    <_>
      -9.49109614e-001 -1.24294363e-001 6.26642895e+000 2.74409088e+002</_>
    <_>
      -9.85797286e-001 -3.15959677e-002 6.35459995e+000 2.46572311e+002</_>
    <_>
      -9.47122812e-001 -1.99125126e-001 6.44845104e+000 3.06574799e+002</_>
    <_>
      -9.66631532e-001 -9.31200236e-002 6.20208883e+000 3.57880096e+002</_>
    <_>
      -7.43954360e-001 -1.65004134e-001 6.29606724e+000 3.51302307e+002</_>
    <_>
      -9.40570474e-001 -2.10063919e-001 6.22933578e+000 4.14495697e+002</_>
    <_>
      -9.83797967e-001 -9.14592519e-002 6.00533056e+000 4.20612823e+002</_>
    <_>
      -9.45470631e-001 -7.79666826e-002 5.76762533e+000 7.37039246e+002</_>
    <_>
      -9.81753767e-001 -5.32292500e-002 6.04242611e+000 7.93966064e+002</_>
    <_>
      -9.58378196e-001 1.19052911e-002 5.92521286e+000 7.25982300e+002</_>
    <_>
      -9.67055202e-001 -1.18335998e-002 6.21338940e+000 5.47781128e+002</_>
    <_>
      -9.79990900e-001 -5.88571317e-002 6.06960487e+000 6.33688354e+002</_>
    <_>
      -6.51959121e-001 -1.72350660e-001 6.65830898e+000 6.71581726e+002</_>
    <_>
      -9.72494662e-001 -9.98495147e-002 5.82468700e+000 5.23792908e+002</_>
    <_>
      -9.62209821e-001 -6.34678081e-002 6.17556286e+000 6.10779663e+002</_>
    <_>
      -9.86254692e-001 -8.80055502e-002 6.02614355e+000 6.86031677e+002</_>
    <_>
      -9.52380657e-001 3.50480378e-002 5.93420553e+000 6.32165833e+002</_>
    <_>
      -9.84774470e-001 -3.69729400e-002 6.05775166e+000 7.33129700e+002</_>
    <_>
      -9.74755168e-001 -3.85287292e-002 5.92112446e+000 5.77571045e+002</_>
    <_>
      9.38795805e-001 -6.69851378e-002 5.60360432e+000 6.58681458e+002</_>
    <_>
      9.66230750e-001 7.39815831e-002 6.18330717e+000 6.27790100e+002</_>
    <_>
      9.90150869e-001 4.23980355e-002 6.43607473e+000 6.91968262e+002</_>
    <_>
      9.88633156e-001 4.48957086e-002 6.48196411e+000 6.30267334e+002</_>
    <_>
      9.68785465e-001 7.49251340e-003 6.31459188e+000 5.41598999e+002</_>
    <_>
      9.82286155e-001 1.54157057e-002 6.60646152e+000 5.76580505e+002</_>
    <_>
      9.71711636e-001 4.97944206e-002 6.43093634e+000 6.09850220e+002</_>
    <_>
      9.94941533e-001 4.61593717e-002 6.29895592e+000 5.71225098e+002</_>
    <_>
      9.42910612e-001 1.25081778e-001 6.53493214e+000 6.89857788e+002</_>
    <_>
      -9.87607241e-001 -3.07901576e-002 6.45417690e+000 6.21596313e+002</_>
    <_>
      -8.47990870e-001 2.21116871e-001 4.82427692e+000 5.59534363e+002</_>
    <_>
      -7.37686217e-001 6.20611012e-002 4.73948383e+000 6.15554199e+002</_>
    <_>
      -7.40082741e-001 -1.87664166e-001 6.47101879e+000 5.41282715e+002</_>
    <_>
      -9.12562966e-001 7.51897022e-002 6.06954861e+000 6.97243530e+002</_>
    <_>
      -9.88890290e-001 -7.37846196e-002 6.27669430e+000 6.32859619e+002</_>
    <_>
      -9.88374650e-001 -6.19821325e-002 5.82451868e+000 5.79899475e+002</_>
    <_>
      7.39327490e-001 4.28650081e-002 6.33960056e+000 6.83470215e+002</_>
    <_>
      9.26846981e-001 6.71845675e-002 6.49521351e+000 6.31304749e+002</_>
    <_>
      9.07237768e-001 -7.23742172e-002 6.04473352e+000 5.79758850e+002</_>
    <_>
      9.94538248e-001 -8.40865355e-003 5.73017550e+000 6.37612366e+002</_>
    <_>
      9.84992683e-001 1.23272967e-002 6.13694429e+000 6.34228699e+002</_>
    <_>
      9.82557237e-001 1.88463312e-002 6.57217646e+000 6.25035889e+002</_>
    <_>
      9.78677988e-001 3.70037556e-002 6.64579105e+000 5.54755066e+002</_>
    <_>
      4.18108284e-001 4.05205429e-001 5.22615194e+000 5.41389893e+002</_>
    <_>
      9.82697010e-001 5.18246926e-002 6.57130671e+000 5.73121399e+002</_>
    <_>
      9.91705596e-001 -3.87520231e-002 6.52026224e+000 5.98738220e+002</_>
    <_>
      8.62276971e-001 -1.19460016e-001 6.45226002e+000 4.92779999e+002</_>
    <_>
      9.71662760e-001 1.13988951e-001 6.60941458e+000 6.32453430e+002</_>
    <_>
      9.95013416e-001 3.16548012e-002 5.69009304e+000 7.29133606e+002</_>
    <_>
      9.94480550e-001 5.24725132e-002 6.13234997e+000 6.80110046e+002</_>
    <_>
      -7.66058147e-001 1.59600317e-001 2.94933581e+000 -1.</_>
    <_>
      -7.40700126e-001 1.47443742e-001 2.60589671e+000 2.00391006e+002</_>
    <_>
      -9.88939703e-001 -7.16828927e-002 2.49251223e+000 4.42085632e+002</_>
    <_>
      -9.93154407e-001 -1.13638313e-002 2.46544075e+000 4.24558197e+002</_>
    <_>
      -9.91353095e-001 -2.48576403e-002 2.44783783e+000 2.66570831e+002</_>
    <_>
      -9.44587529e-001 -8.73458982e-002 2.11334109e+000 3.17379211e+002</_>
    <_>
      -2.24629700e-001 -1.12569168e-001 9.75726223e+000 3.41583008e+002</_>
    <_>
      -8.59210312e-001 -3.39046627e-001 2.59794092e+000 3.00257721e+002</_>
    <_>
      -9.90051806e-001 3.37285809e-002 2.12105179e+000 2.47159882e+002</_>
    <_>
      -1.91425994e-001 -5.83391368e-001 7.07063532e+000 2.73279236e+002</_>
    <_>
      -9.92062151e-001 -1.34026390e-002 2.41760063e+000 2.65328125e+002</_>
    <_>
      -9.55616236e-001 -2.18371063e-001 3.27665830e+000 3.26183563e+002</_>
    <_>
      -9.90916729e-001 2.88178734e-002 2.29862404e+000 2.58021637e+002</_>
    <_>
      -9.91814256e-001 -1.08593076e-001 2.57577515e+000 5.03565125e+002</_>
    <_>
      -9.91218925e-001 -1.13017038e-001 2.55801344e+000 3.85809540e+002</_>
    <_>
      -8.00751805e-001 -8.41854066e-002 2.88340044e+000 3.78742706e+002</_>
    <_>
      -3.01020741e-001 8.75296146e-002 4.08171368e+000 5.23624084e+002</_>
    <_>
      -9.09237504e-001 -6.85427291e-003 2.37109566e+000 3.63350189e+002</_>
    <_>
      -9.41229284e-001 -1.98256463e-001 2.73394728e+000 2.81203979e+002</_>
    <_>
      -9.90827560e-001 -7.48533532e-002 2.50446463e+000 3.05559723e+002</_>
    <_>
      -8.94338548e-001 2.33141929e-001 2.67180395e+000 5.60741455e+002</_>
    <_>
      -9.95802164e-001 5.13692833e-002 2.97462916e+000 4.64189362e+002</_>
    <_>
      -6.19510829e-001 4.74949867e-001 4.41531229e+000 5.28733337e+002</_>
    <_>
      -7.23264098e-001 -3.30836266e-001 2.92054319e+000 5.25698608e+002</_>
    <_>
      -9.85351205e-001 -1.27590839e-002 2.52511644e+000 4.86892670e+002</_>
    <_>
      -9.34261799e-001 1.60968512e-001 2.90003562e+000 3.68465515e+002</_>
    <_>
      -9.82539892e-001 3.37183941e-003 2.50880337e+000 3.96474884e+002</_>
    <_>
      -1.28215641e-001 -6.23040378e-001 7.52333164e+000 4.19147583e+002</_>
    <_>
      -3.34118843e-001 -5.64845912e-002 5.25375080e+000 6.45949158e+002</_>
    <_>
      -8.47681165e-001 -2.43536189e-001 2.70448780e+000 6.02401245e+002</_>
    <_>
      -7.28392065e-001 -1.84755214e-002 3.47719193e+000 5.84322144e+002</_>
    <_>
      -7.16229439e-001 4.01994646e-001 4.41714239e+000 7.24020569e+002</_>
    <_>
      -9.70168591e-001 1.90902546e-001 2.20938158e+000 4.53839172e+002</_>
    <_>
      -9.46850121e-001 -2.44030222e-001 3.42983866e+000 6.86964539e+002</_>
    <_>
      -3.14640105e-001 -7.03028440e-001 7.81505966e+000 6.86554932e+002</_>
    <_>
      -2.09668532e-001 -4.68319774e-001 8.46078014e+000 7.92941406e+002</_>
    <_>
      -4.51402247e-001 -1.67270750e-001 5.48798513e+000 7.25108276e+002</_>
    <_>
      -5.44053853e-001 -4.65206504e-001 4.06670570e+000 6.86129150e+002</_>
    <_>
      3.26302230e-001 -6.00023925e-001 5.72638130e+000 7.50370544e+002</_>
    <_>
      3.65315467e-001 -6.44317269e-001 5.52899361e+000 6.81991577e+002</_>
    <_>
      9.77057517e-001 -1.48940280e-001 2.86187029e+000 6.37306702e+002</_>
    <_>
      9.65153098e-001 -2.22097918e-001 3.06649065e+000 6.42351563e+002</_>
    <_>
      7.26054788e-001 2.41656065e-001 3.63081694e+000 5.80075073e+002</_>
    <_>
      8.07026625e-001 3.67004395e-001 2.91448522e+000 6.36550293e+002</_>
    <_>
      9.90576565e-001 4.33374196e-002 2.70639348e+000 5.81167480e+002</_>
    <_>
      9.90449548e-001 4.98457700e-002 2.69823384e+000 5.59143372e+002</_>
    <_>
      9.82578158e-001 1.43561319e-001 3.06521773e+000 6.03304138e+002</_>
    <_>
      2.18680426e-001 -7.09188521e-001 8.56498337e+000 5.48853271e+002</_>
    <_>
      9.82783020e-001 1.70843638e-002 3.23045540e+000 6.51910645e+002</_>
    <_>
      9.91068244e-001 7.38046542e-002 2.81186962e+000 5.59677002e+002</_>
    <_>
      9.91320789e-001 2.14632377e-002 2.73657012e+000 5.51526550e+002</_>
    <_>
      9.90097463e-001 6.70896024e-002 2.73263359e+000 4.88217926e+002</_>
    <_>
      7.67287135e-001 -1.63807780e-001 2.93727756e+000 4.92898651e+002</_>
    <_>
      9.83670890e-001 1.18397750e-001 2.53602767e+000 4.76943298e+002</_>
    <_>
      6.79280341e-001 5.49072027e-001 4.81182003e+000 6.30617310e+002</_>
    <_>
      7.34251320e-001 -4.38471049e-001 4.43555832e+000 5.49325439e+002</_>
    <_>
      9.80056942e-001 1.26436114e-001 2.50425196e+000 4.52578857e+002</_>
    <_>
      9.43923712e-001 -1.62090316e-001 3.05342054e+000 4.64549927e+002</_>
    <_>
      4.62320119e-001 7.09469497e-001 6.67147923e+000 6.43050659e+002</_>
    <_>
      9.93560851e-001 -2.46953797e-002 2.49131656e+000 5.08703308e+002</_>
    <_>
      3.18467885e-001 -6.93537951e-001 9.63531113e+000 5.92969910e+002</_>
    <_>
      4.71629739e-001 4.02472615e-001 6.88229609e+000 6.49513000e+002</_>
    <_>
      4.60555702e-001 5.73310368e-002 5.49064922e+000 4.65690735e+002</_>
    <_>
      1.90216914e-001 -4.24929053e-001 6.84725809e+000 5.58831482e+002</_>
    <_>
      9.18625176e-001 7.69509673e-002 3.17853236e+000 5.39195923e+002</_>
    <_>
      5.51307738e-001 6.78505003e-001 5.41390753e+000 5.41677429e+002</_>
    <_>
      9.83969569e-001 -1.43174287e-002 2.49113560e+000 4.58562103e+002</_>
    <_>
      7.43605375e-001 4.70116496e-001 3.52881765e+000 6.89385376e+002</_>
    <_>
      5.64442694e-001 6.19062424e-001 3.58344769e+000 6.94721375e+002</_>
    <_>
      9.81516480e-001 7.80418739e-002 2.95123577e+000 5.92772766e+002</_>
    <_>
      9.94196236e-001 4.14645635e-002 2.74094367e+000 5.44653198e+002</_>
    <_>
      5.63774645e-001 4.52625573e-001 3.75835347e+000 6.84583801e+002</_>
    <_>
      9.31119382e-001 1.82267860e-001 3.49001932e+000 6.05388000e+002</_>
    <_>
      -5.26271164e-001 2.51747280e-001 4.24475622e+000 8.89374634e+002</_>
    <_>
      -5.10898113e-001 -6.21023953e-001 4.44354677e+000 8.34275574e+002</_>
    <_>
      -5.68579197e-001 -2.88685948e-001 3.48535728e+000 7.43933960e+002</_>
    <_>
      -7.56759346e-001 -3.13067824e-001 2.81339765e+000 7.81262024e+002</_>
    <_>
      -2.59043187e-001 2.18869187e-002 8.68072987e+000 7.36633972e+002</_>
    <_>
      -2.18723163e-001 -3.01465720e-001 4.80586338e+000 8.04072021e+002</_>
    <_>
      -3.37255627e-001 -6.19531631e-001 4.93253088e+000 6.65424927e+002</_>
    <_>
      -5.08814931e-001 6.19817972e-001 3.81477737e+000 6.45174500e+002</_>
    <_>
      -9.78445411e-001 -7.42701367e-002 2.82910609e+000 5.84179810e+002</_>
    <_>
      -9.27708328e-001 1.80679172e-001 3.31102800e+000 6.41503906e+002</_>
    <_>
      -6.73349440e-001 6.01418316e-001 4.30609369e+000 5.18937134e+002</_>
    <_>
      -9.95012641e-001 -2.68705133e-002 2.77354574e+000 5.69924988e+002</_>
    <_>
      -7.36970961e-001 4.46760386e-001 2.71706176e+000 5.80651306e+002</_>
    <_>
      -2.85620868e-001 -1.86616763e-001 5.30802822e+000 6.60531494e+002</_>
    <_>
      -9.96761680e-001 3.65111902e-002 2.55091596e+000 5.03780609e+002</_>
    <_>
      -9.08291578e-001 7.07214475e-002 2.97590470e+000 4.65724213e+002</_>
    <_>
      -7.46938229e-001 4.55770224e-001 3.75577879e+000 6.44424133e+002</_>
    <_>
      -9.28012013e-001 -6.99179024e-002 2.66255522e+000 4.93407745e+002</_>
    <_>
      -9.93524730e-001 5.64878322e-002 2.66777039e+000 4.70997223e+002</_>
    <_>
      -8.59797478e-001 2.34805226e-001 3.23505282e+000 4.55973328e+002</_>
    <_>
      -9.25081372e-001 -9.23321582e-003 2.69208121e+000 4.83857117e+002</_>
    <_>
      -9.93631065e-001 2.15596762e-002 2.63106585e+000 4.64029297e+002</_>
    <_>
      -3.89546156e-001 -2.65938789e-001 6.09069681e+000 5.52732666e+002</_>
    <_>
      -9.21228766e-001 -2.47539833e-001 2.86329484e+000 5.40565430e+002</_>
    <_>
      -3.52933824e-001 -6.27389193e-001 8.51498699e+000 5.53583618e+002</_>
    <_>
      -6.84149921e-001 4.66953665e-002 3.55302000e+000 5.06149628e+002</_>
    <_>
      -9.91154075e-001 3.87402065e-002 2.05021644e+000 4.55668640e+002</_>
    <_>
      -4.57115889e-001 -3.13517809e-001 5.13196230e+000 5.38971252e+002</_>
    <_>
      -4.29200917e-001 4.60640281e-001 5.75867367e+000 7.13277710e+002</_>
    <_>
      -7.55521357e-001 4.56790775e-001 3.34638548e+000 7.32577637e+002</_>
    <_>
      -7.16662705e-001 4.82373118e-001 3.98046613e+000 6.76325195e+002</_>
    <_>
      -9.80301380e-001 -4.49245349e-002 2.76629329e+000 5.52656921e+002</_>
    <_>
      -9.85074818e-001 -1.61545336e-001 2.78603268e+000 5.34571228e+002</_>
    <_>
      -8.74970257e-001 2.80859798e-001 3.33626676e+000 6.89015442e+002</_>
    <_>
      -7.28247702e-001 2.94836640e-001 3.83768582e+000 7.14002197e+002</_>
    <_>
      -4.01264131e-001 2.85562038e-001 3.12340736e+000 7.36678101e+002</_>
    <_>
      -1.04579598e-001 -6.62466705e-001 1.06291943e+001 7.27682739e+002</_>
    <_>
      6.93383276e-001 -2.24204659e-002 3.02178311e+000 7.25779358e+002</_>
    <_>
      7.28218853e-001 -1.85125209e-002 2.88653517e+000 7.07377502e+002</_>
    <_>
      8.41894329e-001 1.28485590e-001 2.72063565e+000 6.37811218e+002</_>
    <_>
      6.20884478e-001 2.06931606e-001 4.15185452e+000 7.55197266e+002</_>
    <_>
      1.46856740e-001 -6.08465075e-001 9.29570007e+000 8.11438965e+002</_>
    <_>
      7.00441778e-001 -3.56837481e-001 3.54521751e+000 6.52079407e+002</_>
    <_>
      5.76150119e-001 6.24561965e-001 3.61727524e+000 6.28733337e+002</_>
    <_>
      9.81744289e-001 5.95489629e-002 2.79963303e+000 5.86581482e+002</_>
    <_>
      6.08155012e-001 5.13131917e-001 2.92005062e+000 5.76428589e+002</_>
    <_>
      8.43081295e-001 -1.98127449e-001 5.01060867e+000 6.99358398e+002</_>
    <_>
      1.60021082e-001 1.54986484e-002 3.51283026e+000 6.81379822e+002</_>
    <_>
      9.43966806e-001 1.82838351e-001 3.42043567e+000 6.30791687e+002</_>
    <_>
      8.26529205e-001 3.56862217e-001 3.23603868e+000 4.95595764e+002</_>
    <_>
      9.81232047e-001 1.36765465e-001 2.53126669e+000 4.97314178e+002</_>
    <_>
      8.89236271e-001 8.57681409e-002 2.83699632e+000 4.62908264e+002</_>
    <_>
      9.81848180e-001 1.48043379e-001 2.47381735e+000 4.85300568e+002</_>
    <_>
      8.21871042e-001 2.49717399e-001 2.98210955e+000 5.86459473e+002</_>
    <_>
      9.85185862e-001 1.32607609e-001 2.60323763e+000 4.66092407e+002</_>
    <_>
      9.26295459e-001 5.94831333e-002 2.62351155e+000 4.85774506e+002</_>
    <_>
      7.01631367e-001 -4.02117699e-001 4.83386517e+000 5.13247131e+002</_>
    <_>
      8.18254828e-001 -1.65317401e-001 3.49778509e+000 6.00881592e+002</_>
    <_>
      9.09738898e-001 2.67816275e-001 2.79265571e+000 5.89078369e+002</_>
    <_>
      9.51650083e-001 5.34957983e-002 2.40109491e+000 4.83393097e+002</_>
    <_>
      9.73582685e-001 9.22231078e-002 2.57651329e+000 4.68643768e+002</_>
    <_>
      7.77870417e-001 -4.76211011e-002 3.33709407e+000 5.31297974e+002</_>
    <_>
      3.25984657e-001 -6.74338579e-001 1.00433397e+001 5.55733215e+002</_>
    <_>
      6.55007541e-001 3.97681355e-001 5.13446665e+000 6.61649719e+002</_>
    <_>
      9.81089234e-001 5.97855598e-002 2.36113405e+000 4.69262085e+002</_>
    <_>
      8.92740011e-001 -3.56109172e-001 2.92082381e+000 5.22979431e+002</_>
    <_>
      1.89219385e-001 -5.12502372e-001 7.05791855e+000 5.21905151e+002</_>
    <_>
      9.94140327e-001 2.63589025e-002 2.18422222e+000 4.49774445e+002</_>
    <_>
      9.89818931e-001 -5.72630502e-002 2.40730143e+000 4.90115845e+002</_>
    <_>
      5.81571281e-001 2.81885207e-001 4.41720724e+000 6.73646240e+002</_>
    <_>
      9.54852939e-001 9.23780799e-002 2.88247275e+000 5.77733521e+002</_>
    <_>
      3.32474083e-001 6.51899397e-001 4.17107296e+000 7.74941772e+002</_>
    <_>
      2.34996364e-001 7.16434047e-002 3.45567250e+000 7.34435486e+002</_>
    <_>
      6.26581132e-001 3.67172539e-001 4.56015921e+000 6.16668091e+002</_>
    <_>
      9.68034506e-001 1.11334887e-003 2.65369010e+000 5.33131714e+002</_>
    <_>
      3.70952815e-001 6.71416998e-001 5.84057760e+000 7.92824097e+002</_></support_vectors>
  <decision_functions>
    <_>
      <sv_count>6</sv_count>
      <rho>-9.7817922407732549e-001</rho>
      <alpha>
        7.5680340383692549e-002 1.0000000000000001e-001
        1.0000000000000001e-001 -1.0000000000000001e-001
        -1.0000000000000001e-001 -7.5680340383692243e-002</alpha>
      <index>
        1 2 3 4 5 29</index></_>
    <_>
      <sv_count>4</sv_count>
      <rho>-1.9639201668680977e+000</rho>
      <alpha>
        9.3819004659264127e-002 1.0000000000000001e-001
        -1.0000000000000001e-001 -9.3819004659264071e-002</alpha>
      <index>
        2 3 32 37</index></_>
    <_>
      <sv_count>8</sv_count>
      <rho>-2.2921577976886289e+000</rho>
      <alpha>
        4.2551850308667337e-002 1.0000000000000001e-001
        1.0000000000000001e-001 1.0000000000000001e-001
        -1.0000000000000001e-001 -1.0000000000000001e-001
        -4.2551850308667316e-002 -1.0000000000000001e-001</alpha>
      <index>
        0 1 2 3 119 120 121 123</index></_>
    <_>
      <sv_count>4</sv_count>
      <rho>-2.3175469536450981e+000</rho>
      <alpha>
        7.0070585529533297e-002 1.0000000000000001e-001
        -1.0000000000000001e-001 -7.0070585529532672e-002</alpha>
      <index>
        1 3 306 312</index></_>
    <_>
      <sv_count>6</sv_count>
      <rho>-1.5771601354763620e+000</rho>
      <alpha>
        7.4673454794162222e-003 1.0000000000000001e-001
        1.0000000000000001e-001 -1.0000000000000001e-001
        -1.0000000000000001e-001 -7.4673454794157408e-003</alpha>
      <index>
        1 2 3 363 364 372</index></_>
    <_>
      <sv_count>58</sv_count>
      <rho>9.9015090418104246e-001</rho>
      <alpha>
        1.0000000000000001e-001 1.0000000000000001e-001
        1.0000000000000001e-001 1.0000000000000001e-001
        1.0000000000000001e-001 1.0000000000000001e-001
        1.0000000000000001e-001 1.0000000000000001e-001
        1.0000000000000001e-001 1.0000000000000001e-001
        1.0000000000000001e-001 1.0000000000000001e-001
        1.0000000000000001e-001 1.0000000000000001e-001
        1.0000000000000001e-001 1.0000000000000001e-001
        1.0000000000000001e-001 1.0000000000000001e-001
        1.0000000000000001e-001 1.0000000000000001e-001
        1.0000000000000001e-001 1.0000000000000001e-001
        1.0000000000000001e-001 1.0000000000000001e-001
        1.0000000000000001e-001 1.0000000000000001e-001
        1.0000000000000001e-001 1.0000000000000001e-001
        -9.4767757838913030e-002 -1.0000000000000001e-001
        -1.0000000000000001e-001 -1.0000000000000001e-001
        -1.0000000000000001e-001 -1.0000000000000001e-001
        -1.0000000000000001e-001 -1.0000000000000001e-001
        -1.0000000000000001e-001 -1.0000000000000001e-001
        -1.0000000000000001e-001 -9.7828993764190945e-004
        -1.0000000000000001e-001 -1.0000000000000001e-001
        -1.0000000000000001e-001 -8.0443773174405764e-002
        -1.0000000000000001e-001 -8.2071694627160949e-002
        -1.0000000000000001e-001 -4.1738484421952542e-002
        -1.0000000000000001e-001 -1.0000000000000001e-001
        -1.0000000000000001e-001 -1.0000000000000001e-001
        -1.0000000000000001e-001 -1.0000000000000001e-001
        -1.0000000000000001e-001 -1.0000000000000001e-001
        -1.0000000000000001e-001 -1.0000000000000001e-001</alpha>
      <index>
        4 5 6 7 8 9 10 11 12 13 14 15 16 17 18 19 20 21 22 23 24 25 26
        27 28 29 30 31 32 34 35 41 42 45 55 56 57 58 63 65 67 81 83 84
        86 88 89 93 94 95 98 99 100 101 107 110 113 114</index></_>
    <_>
      <sv_count>24</sv_count>
      <rho>-4.6751891630942772e+000</rho>
      <alpha>
        1.0000000000000001e-001 1.0000000000000001e-001
        1.0000000000000001e-001 1.0967864409955218e-002
        1.0000000000000001e-001 1.0000000000000001e-001
        1.0000000000000001e-001 1.0000000000000001e-001
        1.0000000000000001e-001 1.0000000000000001e-001
        1.0000000000000001e-001 1.0000000000000001e-001
        -1.0000000000000001e-001 -1.0000000000000001e-001
        -1.0000000000000001e-001 -1.0000000000000001e-001
        -1.0000000000000001e-001 -1.0000000000000001e-001
        -5.9927639544568201e-002 -1.0000000000000001e-001
        -1.0000000000000001e-001 -1.0000000000000001e-001
        -1.0000000000000001e-001 -5.1040224865386813e-002</alpha>
      <index>
        14 15 17 18 19 20 21 22 26 28 29 31 119 120 121 124 125 126 133
        187 202 282 286 287</index></_>
    <_>
      <sv_count>8</sv_count>
      <rho>-3.3332210248418264e+000</rho>
      <alpha>
        1.0000000000000001e-001 1.0000000000000001e-001
        6.5141183189768290e-002 9.8309464551934555e-004
        -1.0000000000000001e-001 -1.0000000000000001e-001
        -1.5687073149372358e-002 -5.0437204710915666e-002</alpha>
      <index>
        14 17 20 21 306 313 343 356</index></_>
    <_>
      <sv_count>46</sv_count>
      <rho>-4.4729728849025330e+000</rho>
      <alpha>
        1.0000000000000001e-001 1.0000000000000001e-001
        1.0000000000000001e-001 1.0000000000000001e-001
        1.0000000000000001e-001 1.0000000000000001e-001
        1.0000000000000001e-001 1.0000000000000001e-001
        1.0000000000000001e-001 1.0000000000000001e-001
        1.0000000000000001e-001 1.0000000000000001e-001
        1.0000000000000001e-001 1.0000000000000001e-001
        1.0000000000000001e-001 8.7937126901474011e-002
        1.0000000000000001e-001 1.0000000000000001e-001
        1.0000000000000001e-001 1.0000000000000001e-001
        1.0000000000000001e-001 1.0000000000000001e-001
        -1.0000000000000001e-001 -1.0000000000000001e-001
        -1.0000000000000001e-001 -1.0000000000000001e-001
        -1.0000000000000001e-001 -1.0000000000000001e-001
        -4.4484085144215089e-003 -1.0000000000000001e-001
        -1.0000000000000001e-001 -1.0000000000000001e-001
        -4.7060367463462316e-003 -1.0000000000000001e-001
        -1.0000000000000001e-001 -1.0000000000000001e-001
        -1.0000000000000001e-001 -1.0000000000000001e-001
        -1.0000000000000001e-001 -1.0000000000000001e-001
        -1.0000000000000001e-001 -7.8782681700280563e-002
        -1.0000000000000001e-001 -1.0000000000000001e-001
        -1.0000000000000001e-001 -1.0000000000000001e-001</alpha>
      <index>
        6 8 9 10 12 13 14 15 16 17 18 19 20 21 22 23 24 26 28 29 30 31
        363 364 367 368 370 371 372 373 374 375 377 378 380 381 382 419
        420 429 490 495 496 500 503 504</index></_>
    <_>
      <sv_count>96</sv_count>
      <rho>-6.9496158217321504e+000</rho>
      <alpha>
        1.0000000000000001e-001 1.0000000000000001e-001
        1.0000000000000001e-001 1.0000000000000001e-001
        1.0000000000000001e-001 1.0000000000000001e-001
        1.0000000000000001e-001 3.4654795745736600e-002
        1.0000000000000001e-001 1.0000000000000001e-001
        1.0000000000000001e-001 1.0000000000000001e-001
        1.0000000000000001e-001 1.0000000000000001e-001
        1.0000000000000001e-001 1.0000000000000001e-001
        1.0000000000000001e-001 1.0000000000000001e-001
        1.0000000000000001e-001 1.0000000000000001e-001
        1.0000000000000001e-001 1.0000000000000001e-001
        1.0000000000000001e-001 1.0000000000000001e-001
        1.0000000000000001e-001 2.1246534979587221e-002
        1.0000000000000001e-001 1.0000000000000001e-001
        1.0000000000000001e-001 1.0000000000000001e-001
        1.0000000000000001e-001 1.0000000000000001e-001
        1.0000000000000001e-001 1.0000000000000001e-001
        1.0000000000000001e-001 1.0000000000000001e-001
        1.0000000000000001e-001 1.0000000000000001e-001
        1.0000000000000001e-001 1.0000000000000001e-001
        2.7730068800741615e-002 1.0000000000000001e-001
        1.0000000000000001e-001 1.0000000000000001e-001
        1.0000000000000001e-001 1.0000000000000001e-001
        1.0000000000000001e-001 1.0000000000000001e-001
        1.0000000000000001e-001 -1.0000000000000001e-001
        -1.0000000000000001e-001 -1.0000000000000001e-001
        -1.0000000000000001e-001 -1.0000000000000001e-001
        -1.0000000000000001e-001 -1.0000000000000001e-001
        -1.0000000000000001e-001 -1.0000000000000001e-001
        -1.0000000000000001e-001 -1.0000000000000001e-001
        -1.0000000000000001e-001 -1.0000000000000001e-001
        -1.0000000000000001e-001 -1.0000000000000001e-001
        -1.0000000000000001e-001 -1.0000000000000001e-001
        -1.0000000000000001e-001 -1.0000000000000001e-001
        -1.0000000000000001e-001 -1.0000000000000001e-001
        -1.0000000000000001e-001 -1.0000000000000001e-001
        -1.0000000000000001e-001 -1.0000000000000001e-001
        -8.3631399526066436e-002 -1.0000000000000001e-001
        -1.0000000000000001e-001 -1.0000000000000001e-001
        -1.0000000000000001e-001 -1.0000000000000001e-001
        -1.0000000000000001e-001 -1.0000000000000001e-001
        -1.0000000000000001e-001 -1.0000000000000001e-001
        -1.0000000000000001e-001 -1.0000000000000001e-001
        -1.0000000000000001e-001 -1.0000000000000001e-001
        -1.0000000000000001e-001 -1.0000000000000001e-001
        -1.0000000000000001e-001 -1.0000000000000001e-001
        -1.0000000000000001e-001 -1.0000000000000001e-001
        -1.0000000000000001e-001 -1.0000000000000001e-001</alpha>
      <index>
        33 34 36 39 40 41 43 44 47 48 49 50 51 54 59 61 62 64 66 67 68
        69 70 71 72 74 75 76 77 78 80 82 85 87 90 91 92 96 97 102 103
        104 105 106 111 112 115 117 118 119 120 121 122 123 124 125 126
        128 129 130 131 132 133 134 135 138 139 140 141 147 149 153 157
        179 181 184 185 186 187 190 194 195 198 200 202 207 246 282 283
        288 289 290 291 293 294 295</index></_>
    <_>
      <sv_count>33</sv_count>
      <rho>-8.1985595465789629e+000</rho>
      <alpha>
        1.0000000000000001e-001 1.0000000000000001e-001
        1.0000000000000001e-001 1.0000000000000001e-001
        9.3404426756859178e-003 1.0000000000000001e-001
        1.0000000000000001e-001 1.0000000000000001e-001
        1.0000000000000001e-001 4.9716933898199546e-004
        1.0000000000000001e-001 1.0000000000000001e-001
        1.0000000000000001e-001 1.0000000000000001e-001
        1.0000000000000001e-001 1.0000000000000001e-001
        1.0000000000000001e-001 -1.0000000000000001e-001
        -1.0000000000000001e-001 -1.0000000000000001e-001
        -1.0000000000000001e-001 -1.0000000000000001e-001
        -1.0000000000000001e-001 -1.0000000000000001e-001
        -1.0000000000000001e-001 -4.4566986814698166e-002
        -1.0000000000000001e-001 -1.0000000000000001e-001
        -6.5270625198316279e-002 -1.0000000000000001e-001
        -1.0000000000000001e-001 -1.0000000000000001e-001
        -1.0000000000000001e-001</alpha>
      <index>
        43 47 51 61 62 64 66 69 71 75 76 77 82 85 91 104 105 306 308 309
        311 312 313 314 315 316 318 343 344 351 352 356 359</index></_>
    <_>
      <sv_count>98</sv_count>
      <rho>-6.8005814690703730e+000</rho>
      <alpha>
        1.0000000000000001e-001 1.0000000000000001e-001
        1.0000000000000001e-001 1.0000000000000001e-001
        1.0000000000000001e-001 1.0000000000000001e-001
        1.0000000000000001e-001 1.0000000000000001e-001
        1.0000000000000001e-001 1.0000000000000001e-001
        1.0000000000000001e-001 1.0000000000000001e-001
        1.0000000000000001e-001 1.0000000000000001e-001
        1.0000000000000001e-001 1.0000000000000001e-001
        1.0000000000000001e-001 1.0000000000000001e-001
        1.0000000000000001e-001 1.0000000000000001e-001
        1.0000000000000001e-001 1.0000000000000001e-001
        1.0000000000000001e-001 1.0000000000000001e-001
        1.0000000000000001e-001 1.0000000000000001e-001
        1.0000000000000001e-001 1.0000000000000001e-001
        1.0000000000000001e-001 1.0000000000000001e-001
        1.0000000000000001e-001 1.0000000000000001e-001
        1.0000000000000001e-001 1.0000000000000001e-001
        1.0000000000000001e-001 1.0000000000000001e-001
        1.0000000000000001e-001 1.0000000000000001e-001
        1.0000000000000001e-001 1.0000000000000001e-001
        1.0000000000000001e-001 1.0000000000000001e-001
        1.0000000000000001e-001 1.0000000000000001e-001
        1.0000000000000001e-001 1.0000000000000001e-001
        3.9209913120407801e-002 1.0000000000000001e-001
        1.0000000000000001e-001 -1.0000000000000001e-001
        -1.0000000000000001e-001 -1.0000000000000001e-001
        -1.0000000000000001e-001 -1.0000000000000001e-001
        -1.0000000000000001e-001 -1.0000000000000001e-001
        -1.0000000000000001e-001 -1.0000000000000001e-001
        -1.0000000000000001e-001 -1.0000000000000001e-001
        -1.0000000000000001e-001 -1.0000000000000001e-001
        -1.0000000000000001e-001 -1.0000000000000001e-001
        -1.0000000000000001e-001 -1.0000000000000001e-001
        -1.0000000000000001e-001 -1.0000000000000001e-001
        -1.0000000000000001e-001 -1.0000000000000001e-001
        -1.0000000000000001e-001 -1.0000000000000001e-001
        -1.0000000000000001e-001 -1.0000000000000001e-001
        -1.0000000000000001e-001 -1.0000000000000001e-001
        -1.0000000000000001e-001 -1.0000000000000001e-001
        -1.0000000000000001e-001 -1.0000000000000001e-001
        -3.9209913120409286e-002 -1.0000000000000001e-001
        -1.0000000000000001e-001 -1.0000000000000001e-001
        -1.0000000000000001e-001 -1.0000000000000001e-001
        -1.0000000000000001e-001 -1.0000000000000001e-001
        -1.0000000000000001e-001 -1.0000000000000001e-001
        -1.0000000000000001e-001 -1.0000000000000001e-001
        -1.0000000000000001e-001 -1.0000000000000001e-001
        -1.0000000000000001e-001 -1.0000000000000001e-001
        -1.0000000000000001e-001 -1.0000000000000001e-001</alpha>
      <index>
        33 34 36 38 39 40 41 46 47 49 50 52 53 54 59 60 66 67 69 70 72
        73 74 75 76 78 79 80 82 87 90 92 93 94 96 97 98 99 101 102 104
        105 106 108 109 111 116 117 118 363 364 365 366 367 368 369 370
        371 372 373 374 375 377 378 380 381 382 388 389 390 395 410 414
        415 416 419 420 422 425 429 451 455 462 485 486 487 488 490 491
        492 495 496 498 500 501 502 503 504</index></_>
    <_>
      <sv_count>105</sv_count>
      <rho>-4.8949241715598069e+000</rho>
      <alpha>
        1.0000000000000001e-001 1.0000000000000001e-001
        1.0000000000000001e-001 1.0000000000000001e-001
        1.0000000000000001e-001 1.0000000000000001e-001
        1.0000000000000001e-001 1.0000000000000001e-001
        1.0000000000000001e-001 1.0000000000000001e-001
        1.0000000000000001e-001 1.0000000000000001e-001
        1.0000000000000001e-001 1.0000000000000001e-001
        1.0000000000000001e-001 1.0000000000000001e-001
        1.0000000000000001e-001 1.0000000000000001e-001
        1.0000000000000001e-001 1.0000000000000001e-001
        1.0000000000000001e-001 1.0000000000000001e-001
        1.0000000000000001e-001 1.0000000000000001e-001
        1.0000000000000001e-001 1.0000000000000001e-001
        1.0000000000000001e-001 1.0000000000000001e-001
        1.0000000000000001e-001 1.0000000000000001e-001
        6.5225702618130479e-003 1.0000000000000001e-001
        1.0000000000000001e-001 1.0000000000000001e-001
        1.0000000000000001e-001 1.0000000000000001e-001
        1.0000000000000001e-001 1.0000000000000001e-001
        1.0000000000000001e-001 1.0000000000000001e-001
        1.0000000000000001e-001 1.0000000000000001e-001
        1.0000000000000001e-001 1.0000000000000001e-001
        1.0000000000000001e-001 1.0000000000000001e-001
        1.0000000000000001e-001 1.0000000000000001e-001
        1.0000000000000001e-001 1.0000000000000001e-001
        3.6618526045338301e-002 1.0000000000000001e-001
        1.0000000000000001e-001 -1.0000000000000001e-001
        -1.0000000000000001e-001 -1.0000000000000001e-001
        -1.0000000000000001e-001 -1.0000000000000001e-001
        -1.0000000000000001e-001 -1.0000000000000001e-001
        -1.0000000000000001e-001 -5.7370785947199507e-002
        -1.0000000000000001e-001 -1.0000000000000001e-001
        -1.0000000000000001e-001 -1.0000000000000001e-001
        -1.0000000000000001e-001 -1.0000000000000001e-001
        -1.0000000000000001e-001 -1.0000000000000001e-001
        -1.0000000000000001e-001 -1.0000000000000001e-001
        -1.0000000000000001e-001 -1.0000000000000001e-001
        -1.0000000000000001e-001 -1.0000000000000001e-001
        -1.0000000000000001e-001 -1.0000000000000001e-001
        -1.0000000000000001e-001 -1.0000000000000001e-001
        -1.0000000000000001e-001 -8.5770310351034468e-002
        -1.0000000000000001e-001 -1.0000000000000001e-001
        -1.0000000000000001e-001 -1.0000000000000001e-001
        -1.0000000000000001e-001 -1.0000000000000001e-001
        -1.0000000000000001e-001 -1.0000000000000001e-001
        -1.0000000000000001e-001 -1.0000000000000001e-001
        -1.0000000000000001e-001 -1.0000000000000001e-001
        -1.0000000000000001e-001 -1.0000000000000001e-001
        -1.0000000000000001e-001 -1.0000000000000001e-001
        -1.0000000000000001e-001 -1.0000000000000001e-001
        -1.0000000000000001e-001 -1.0000000000000001e-001
        -1.0000000000000001e-001 -1.0000000000000001e-001
        -1.0000000000000001e-001</alpha>
      <index>
        123 130 131 132 139 147 149 151 152 166 167 169 171 176 183 188
        189 192 198 199 201 203 208 209 213 214 217 221 222 224 227 229
        236 238 241 242 245 247 249 250 251 252 259 263 264 266 276 277
        280 288 290 292 303 306 307 308 310 311 312 313 317 318 319 320
        321 322 323 324 325 326 327 328 329 330 331 332 333 334 335 336
        337 338 339 340 341 342 343 344 345 346 347 348 349 350 351 352
        353 354 356 357 358 359 360 361 362</index></_>
    <_>
      <sv_count>269</sv_count>
      <rho>3.1978622782112711e+000</rho>
      <alpha>
        1.0000000000000001e-001 1.0000000000000001e-001
        1.0000000000000001e-001 1.0000000000000001e-001
        1.0000000000000001e-001 1.0000000000000001e-001
        1.0000000000000001e-001 1.0000000000000001e-001
        1.0000000000000001e-001 1.0000000000000001e-001
        1.0000000000000001e-001 1.0000000000000001e-001
        1.0000000000000001e-001 1.0000000000000001e-001
        1.0000000000000001e-001 1.0000000000000001e-001
        1.0000000000000001e-001 1.0000000000000001e-001
        1.0000000000000001e-001 1.0000000000000001e-001
        1.0000000000000001e-001 1.0000000000000001e-001
        1.0000000000000001e-001 1.0000000000000001e-001
        1.0000000000000001e-001 1.0000000000000001e-001
        1.0000000000000001e-001 1.0000000000000001e-001
        1.0000000000000001e-001 1.0000000000000001e-001
        1.0000000000000001e-001 1.0000000000000001e-001
        1.0000000000000001e-001 1.0000000000000001e-001
        1.0000000000000001e-001 1.0000000000000001e-001
        1.0000000000000001e-001 1.0000000000000001e-001
        1.0000000000000001e-001 1.0000000000000001e-001
        1.0000000000000001e-001 1.0000000000000001e-001
        1.0000000000000001e-001 1.0000000000000001e-001
        1.0000000000000001e-001 1.0000000000000001e-001
        1.0000000000000001e-001 1.0000000000000001e-001
        1.0000000000000001e-001 1.0000000000000001e-001
        1.0000000000000001e-001 1.0000000000000001e-001
        1.0000000000000001e-001 1.0000000000000001e-001
        1.0000000000000001e-001 1.0000000000000001e-001
        1.0000000000000001e-001 1.0000000000000001e-001
        1.0000000000000001e-001 1.0000000000000001e-001
        1.0000000000000001e-001 1.0000000000000001e-001
        1.0000000000000001e-001 1.0000000000000001e-001
        1.0000000000000001e-001 1.0000000000000001e-001
        1.0000000000000001e-001 1.0000000000000001e-001
        1.0000000000000001e-001 1.0000000000000001e-001
        1.0000000000000001e-001 1.0000000000000001e-001
        1.0000000000000001e-001 1.0000000000000001e-001
        1.0000000000000001e-001 1.0000000000000001e-001
        1.0000000000000001e-001 1.0000000000000001e-001
        1.0000000000000001e-001 1.0000000000000001e-001
        1.0000000000000001e-001 1.0000000000000001e-001
        1.0000000000000001e-001 1.0000000000000001e-001
        1.0000000000000001e-001 1.0000000000000001e-001
        1.0000000000000001e-001 1.0000000000000001e-001
        1.0000000000000001e-001 1.0000000000000001e-001
        1.0000000000000001e-001 1.0000000000000001e-001
        1.0000000000000001e-001 1.0000000000000001e-001
        1.0000000000000001e-001 1.0000000000000001e-001
        1.5454948294142047e-002 1.0000000000000001e-001
        1.0000000000000001e-001 1.0000000000000001e-001
        1.0000000000000001e-001 1.0000000000000001e-001
        1.0000000000000001e-001 1.0000000000000001e-001
        1.0000000000000001e-001 1.0000000000000001e-001
        1.0000000000000001e-001 1.0000000000000001e-001
        1.0000000000000001e-001 1.0000000000000001e-001
        1.0000000000000001e-001 1.0000000000000001e-001
        1.0000000000000001e-001 1.0000000000000001e-001
        1.0000000000000001e-001 1.0000000000000001e-001
        1.0000000000000001e-001 1.0000000000000001e-001
        1.0000000000000001e-001 1.0000000000000001e-001
        1.0000000000000001e-001 1.0000000000000001e-001
        8.1361259294059671e-002 1.0000000000000001e-001
        1.0000000000000001e-001 1.0000000000000001e-001
        1.0000000000000001e-001 1.0000000000000001e-001
        1.0000000000000001e-001 1.0000000000000001e-001
        1.0000000000000001e-001 1.0000000000000001e-001
        1.0000000000000001e-001 1.0000000000000001e-001
        1.0000000000000001e-001 -1.0000000000000001e-001
        -1.0000000000000001e-001 -1.0000000000000001e-001
        -9.6816207590299311e-002 -1.0000000000000001e-001
        -1.0000000000000001e-001 -1.0000000000000001e-001
        -1.0000000000000001e-001 -1.0000000000000001e-001
        -1.0000000000000001e-001 -1.0000000000000001e-001
        -1.0000000000000001e-001 -1.0000000000000001e-001
        -1.0000000000000001e-001 -1.0000000000000001e-001
        -1.0000000000000001e-001 -1.0000000000000001e-001
        -1.0000000000000001e-001 -1.0000000000000001e-001
        -1.0000000000000001e-001 -1.0000000000000001e-001
        -1.0000000000000001e-001 -1.0000000000000001e-001
        -1.0000000000000001e-001 -1.0000000000000001e-001
        -1.0000000000000001e-001 -1.0000000000000001e-001
        -1.0000000000000001e-001 -1.0000000000000001e-001
        -1.0000000000000001e-001 -1.0000000000000001e-001
        -1.0000000000000001e-001 -1.0000000000000001e-001
        -1.0000000000000001e-001 -1.0000000000000001e-001
        -1.0000000000000001e-001 -1.0000000000000001e-001
        -1.0000000000000001e-001 -1.0000000000000001e-001
        -1.0000000000000001e-001 -1.0000000000000001e-001
        -1.0000000000000001e-001 -1.0000000000000001e-001
        -1.0000000000000001e-001 -1.0000000000000001e-001
        -1.0000000000000001e-001 -1.0000000000000001e-001
        -1.0000000000000001e-001 -1.0000000000000001e-001
        -1.0000000000000001e-001 -1.0000000000000001e-001
        -1.0000000000000001e-001 -1.0000000000000001e-001
        -1.0000000000000001e-001 -1.0000000000000001e-001
        -1.0000000000000001e-001 -1.0000000000000001e-001
        -1.0000000000000001e-001 -1.0000000000000001e-001
        -1.0000000000000001e-001 -1.0000000000000001e-001
        -1.0000000000000001e-001 -1.0000000000000001e-001
        -1.0000000000000001e-001 -1.0000000000000001e-001
        -1.0000000000000001e-001 -1.0000000000000001e-001
        -1.0000000000000001e-001 -1.0000000000000001e-001
        -1.0000000000000001e-001 -1.0000000000000001e-001
        -1.0000000000000001e-001 -1.0000000000000001e-001
        -1.0000000000000001e-001 -1.0000000000000001e-001
        -1.0000000000000001e-001 -1.0000000000000001e-001
        -1.0000000000000001e-001 -1.0000000000000001e-001
        -1.0000000000000001e-001 -1.0000000000000001e-001
        -1.0000000000000001e-001 -1.0000000000000001e-001
        -1.0000000000000001e-001 -1.0000000000000001e-001
        -1.0000000000000001e-001 -1.0000000000000001e-001
        -1.0000000000000001e-001 -1.0000000000000001e-001
        -1.0000000000000001e-001 -1.0000000000000001e-001
        -1.0000000000000001e-001 -1.0000000000000001e-001
        -1.0000000000000001e-001 -1.0000000000000001e-001
        -1.0000000000000001e-001 -1.0000000000000001e-001
        -1.0000000000000001e-001 -1.0000000000000001e-001
        -1.0000000000000001e-001 -1.0000000000000001e-001
        -1.0000000000000001e-001 -1.0000000000000001e-001
        -1.0000000000000001e-001 -1.0000000000000001e-001
        -1.0000000000000001e-001 -1.0000000000000001e-001
        -1.0000000000000001e-001 -1.0000000000000001e-001
        -1.0000000000000001e-001 -1.0000000000000001e-001
        -1.0000000000000001e-001 -1.0000000000000001e-001
        -1.0000000000000001e-001 -1.0000000000000001e-001
        -1.0000000000000001e-001 -1.0000000000000001e-001
        -1.0000000000000001e-001 -1.0000000000000001e-001
        -1.0000000000000001e-001 -1.0000000000000001e-001
        -1.0000000000000001e-001 -1.0000000000000001e-001
        -1.0000000000000001e-001 -1.0000000000000001e-001
        -1.0000000000000001e-001 -1.0000000000000001e-001
        -1.0000000000000001e-001 -1.0000000000000001e-001
        -1.0000000000000001e-001 -1.0000000000000001e-001
        -1.0000000000000001e-001 -1.0000000000000001e-001
        -1.0000000000000001e-001</alpha>
      <index>
        119 120 121 122 124 125 126 127 128 129 131 133 134 135 136 137
        138 140 141 142 143 144 145 146 148 150 153 154 155 156 157 158
        159 160 161 162 163 164 165 168 170 172 173 174 175 177 178 179
        180 181 182 184 185 186 187 190 191 193 194 195 196 197 200 202
        204 205 206 207 210 211 212 215 216 218 219 220 223 225 226 228
        230 231 232 233 234 235 237 239 240 243 244 246 248 253 254 255
        256 257 258 260 261 262 265 267 268 269 270 271 272 273 274 275
        278 279 281 282 283 284 285 286 287 289 291 293 294 295 296 297
        298 299 300 301 302 304 305 363 364 365 366 367 369 370 372 373
        374 375 376 377 378 379 381 382 383 384 385 386 387 388 389 390
        391 392 393 394 396 397 398 399 400 401 402 403 404 405 406 407
        408 409 410 411 412 413 414 415 417 418 420 421 423 424 425 426
        427 428 430 431 432 433 434 435 436 437 438 439 440 441 442 443
        444 445 446 447 448 449 450 451 452 453 454 455 456 457 458 459
        460 461 463 464 465 466 467 468 469 470 471 472 473 474 475 476
        477 478 479 480 481 482 483 484 485 487 489 490 491 492 493 494
        496 497 498 499 501 502 505 506 507 508 509 510 511</index></_>
    <_>
      <sv_count>96</sv_count>
      <rho>2.8182178378525413e+000</rho>
      <alpha>
        1.0000000000000001e-001 1.0000000000000001e-001
        1.0000000000000001e-001 1.0000000000000001e-001
        1.0000000000000001e-001 1.0000000000000001e-001
        1.0000000000000001e-001 1.0000000000000001e-001
        1.0000000000000001e-001 1.0000000000000001e-001
        1.0000000000000001e-001 1.0000000000000001e-001
        1.0000000000000001e-001 1.0000000000000001e-001
        1.0000000000000001e-001 1.0000000000000001e-001
        1.0000000000000001e-001 1.0000000000000001e-001
        1.0000000000000001e-001 1.0000000000000001e-001
        1.0000000000000001e-001 1.0000000000000001e-001
        1.0000000000000001e-001 1.0000000000000001e-001
        1.0000000000000001e-001 1.0000000000000001e-001
        1.0000000000000001e-001 1.0000000000000001e-001
        1.0000000000000001e-001 1.0000000000000001e-001
        1.0000000000000001e-001 1.0000000000000001e-001
        1.0000000000000001e-001 1.0000000000000001e-001
        1.0000000000000001e-001 1.0000000000000001e-001
        1.0000000000000001e-001 1.0000000000000001e-001
        1.0000000000000001e-001 1.0000000000000001e-001
        5.6165061735269098e-002 1.0000000000000001e-001
        1.0000000000000001e-001 1.0000000000000001e-001
        1.0000000000000001e-001 1.0000000000000001e-001
        1.0000000000000001e-001 1.0000000000000001e-001
        -1.0000000000000001e-001 -1.0000000000000001e-001
        -1.0000000000000001e-001 -1.0000000000000001e-001
        -1.0000000000000001e-001 -1.0000000000000001e-001
        -1.0000000000000001e-001 -1.0000000000000001e-001
        -1.0000000000000001e-001 -1.0000000000000001e-001
        -1.0000000000000001e-001 -1.0000000000000001e-001
        -1.0000000000000001e-001 -1.0000000000000001e-001
        -1.0000000000000001e-001 -1.0000000000000001e-001
        -1.0000000000000001e-001 -1.0000000000000001e-001
        -1.0000000000000001e-001 -1.0000000000000001e-001
        -1.0000000000000001e-001 -1.0000000000000001e-001
        -1.0000000000000001e-001 -1.0000000000000001e-001
        -1.0000000000000001e-001 -1.0000000000000001e-001
        -1.0000000000000001e-001 -1.0000000000000001e-001
        -1.0000000000000001e-001 -1.0000000000000001e-001
        -1.0000000000000001e-001 -1.0000000000000001e-001
        -6.7857134345943745e-002 -1.0000000000000001e-001
        -1.0000000000000001e-001 -1.0000000000000001e-001
        -1.0000000000000001e-001 -8.8307927389322735e-002
        -1.0000000000000001e-001 -1.0000000000000001e-001
        -1.0000000000000001e-001 -1.0000000000000001e-001
        -1.0000000000000001e-001 -1.0000000000000001e-001
        -1.0000000000000001e-001 -1.0000000000000001e-001
        -1.0000000000000001e-001 -1.0000000000000001e-001</alpha>
      <index>
        307 310 312 313 319 320 321 322 323 324 325 326 327 328 329 330
        331 332 333 334 335 336 337 338 339 340 341 342 343 344 345 346
        347 348 349 350 351 352 353 354 355 356 357 358 359 360 361 362
        363 369 372 374 379 385 390 391 394 397 398 399 401 402 410 417
        418 421 423 424 425 426 428 440 441 442 443 446 449 452 458 460
        461 463 464 466 472 476 477 482 492 498 499 502 505 507 509 511</index></_></decision_functions></my_svm>
</opencv_storage>
